{
    "w": {
        "w1": [
            [
                0.02920592576265335,
                -1.3278007507324219,
                -1.2769739627838135,
                0.30523785948753357
            ],
            [
                -0.7986347079277039,
                -0.23335856199264526,
                0.7725252509117126,
                1.63572359085083
            ],
            [
                0.5124991536140442,
                -0.19818127155303955,
                1.9138942956924438,
                0.5340461730957031
            ]
        ],
        "w2": [
            [
                0.14786849915981293,
                0.0636505441202981,
                -1.6618390083312988,
                -3.8967249393463135
            ],
            [
                0.24709032318250093,
                -1.2704033851623535,
                0.20413105189800262,
                -2.4205729961395264
            ],
            [
                1.1780551671981812,
                -0.5218789577484131,
                1.0763163566589355,
                2.1581671237945557
            ],
            [
                -0.10871195048093796,
                -0.07049640268087387,
                0.7208613157272339,
                0.8269612193107605
            ]
        ],
        "w3": [
            [
                -0.1937977373600006,
                0.5830624103546143
            ],
            [
                0.3779839873313904,
                -0.10100844502449036
            ],
            [
                -0.7001673579216003,
                -0.3742993474006653
            ],
            [
                -0.5341776609420776,
                -1.202579140663147
            ]
        ]
    },
    "b": {
        "b1": [
            [
                -1.2030924558639526,
                1.0086208581924438,
                1.158301591873169,
                0.8908501267433167
            ]
        ],
        "b2": [
            [
                -0.9947865605354309,
                0.3925613760948181,
                -1.5306273698806763,
                1.2996450662612915
            ]
        ],
        "b3": [
            [
                -1.313788890838623,
                -1.2485175210642507
            ]
        ]
    }
}